digraph Tree {
node [shape=box, style="filled, rounded", color="black", fontname="helvetica"] ;
edge [fontname="helvetica"] ;
0 [label="AoS <= 10.5\nsquared_error = 0.064\nsamples = 219\nvalue = 0.227", fillcolor="#fbebe0"] ;
1 [label="AoS <= 4.5\nsquared_error = 0.014\nsamples = 171\nvalue = 0.131", fillcolor="#fdf3ec"] ;
0 -> 1 [labeldistance=2.5, labelangle=45, headlabel="True"] ;
2 [label="AoA <= 8.5\nsquared_error = 0.003\nsamples = 101\nvalue = 0.055", fillcolor="#fef9f5"] ;
1 -> 2 ;
3 [label="AoA <= -10.0\nsquared_error = 0.001\nsamples = 84\nvalue = 0.038", fillcolor="#fefaf7"] ;
2 -> 3 ;
4 [label="Mach <= 0.35\nsquared_error = 0.001\nsamples = 13\nvalue = 0.093", fillcolor="#fdf6f1"] ;
3 -> 4 ;
5 [label="AoA <= -11.5\nsquared_error = 0.0\nsamples = 6\nvalue = 0.071", fillcolor="#fdf8f3"] ;
4 -> 5 ;
6 [label="AoS <= 2.0\nsquared_error = 0.0\nsamples = 5\nvalue = 0.077", fillcolor="#fdf7f3"] ;
5 -> 6 ;
7 [label="AoS <= -0.5\nsquared_error = 0.0\nsamples = 4\nvalue = 0.072", fillcolor="#fdf8f3"] ;
6 -> 7 ;
8 [label="AoS <= -2.0\nsquared_error = 0.0\nsamples = 2\nvalue = 0.071", fillcolor="#fdf8f3"] ;
7 -> 8 ;
9 [label="squared_error = 0.0\nsamples = 1\nvalue = 0.072", fillcolor="#fdf8f3"] ;
8 -> 9 ;
10 [label="squared_error = -0.0\nsamples = 1\nvalue = 0.066", fillcolor="#fef8f4"] ;
8 -> 10 ;
11 [label="AoA <= -13.5\nsquared_error = 0.0\nsamples = 2\nvalue = 0.075", fillcolor="#fdf7f3"] ;
7 -> 11 ;
12 [label="squared_error = 0.0\nsamples = 1\nvalue = 0.081", fillcolor="#fdf7f2"] ;
11 -> 12 ;
13 [label="squared_error = 0.0\nsamples = 1\nvalue = 0.072", fillcolor="#fdf7f3"] ;
11 -> 13 ;
14 [label="squared_error = -0.0\nsamples = 1\nvalue = 0.116", fillcolor="#fdf4ee"] ;
6 -> 14 ;
15 [label="squared_error = 0.0\nsamples = 1\nvalue = 0.017", fillcolor="#fefcfa"] ;
5 -> 15 ;
16 [label="AoA <= -12.0\nsquared_error = 0.0\nsamples = 7\nvalue = 0.117", fillcolor="#fdf4ee"] ;
4 -> 16 ;
17 [label="Mach <= 0.5\nsquared_error = 0.0\nsamples = 6\nvalue = 0.125", fillcolor="#fdf3ed"] ;
16 -> 17 ;
18 [label="AoS <= -0.5\nsquared_error = 0.0\nsamples = 3\nvalue = 0.118", fillcolor="#fdf4ee"] ;
17 -> 18 ;
19 [label="squared_error = 0.0\nsamples = 1\nvalue = 0.111", fillcolor="#fdf4ee"] ;
18 -> 19 ;
20 [label="AoA <= -13.5\nsquared_error = 0.0\nsamples = 2\nvalue = 0.123", fillcolor="#fdf4ed"] ;
18 -> 20 ;
21 [label="squared_error = 0.0\nsamples = 1\nvalue = 0.121", fillcolor="#fdf4ed"] ;
20 -> 21 ;
22 [label="squared_error = 0.0\nsamples = 1\nvalue = 0.126", fillcolor="#fdf3ed"] ;
20 -> 22 ;
23 [label="Altitude <= 11526.0\nsquared_error = 0.0\nsamples = 3\nvalue = 0.136", fillcolor="#fcf3eb"] ;
17 -> 23 ;
24 [label="squared_error = 0.0\nsamples = 2\nvalue = 0.142", fillcolor="#fcf2eb"] ;
23 -> 24 ;
25 [label="squared_error = 0.0\nsamples = 1\nvalue = 0.123", fillcolor="#fdf4ed"] ;
23 -> 25 ;
26 [label="squared_error = -0.0\nsamples = 1\nvalue = 0.087", fillcolor="#fdf6f1"] ;
16 -> 26 ;
27 [label="AoA <= 4.5\nsquared_error = 0.001\nsamples = 71\nvalue = 0.027", fillcolor="#fefbf9"] ;
3 -> 27 ;
28 [label="AoS <= 2.5\nsquared_error = 0.001\nsamples = 53\nvalue = 0.018", fillcolor="#fefcfa"] ;
27 -> 28 ;
29 [label="AoS <= -3.5\nsquared_error = 0.0\nsamples = 43\nvalue = 0.012", fillcolor="#fefcfb"] ;
28 -> 29 ;
30 [label="AoA <= -1.0\nsquared_error = 0.0\nsamples = 8\nvalue = 0.042", fillcolor="#fefaf7"] ;
29 -> 30 ;
31 [label="Mach <= 0.15\nsquared_error = 0.0\nsamples = 3\nvalue = 0.065", fillcolor="#fef8f4"] ;
30 -> 31 ;
32 [label="AoA <= -4.5\nsquared_error = 0.0\nsamples = 2\nvalue = 0.072", fillcolor="#fdf7f3"] ;
31 -> 32 ;
33 [label="squared_error = 0.0\nsamples = 1\nvalue = 0.081", fillcolor="#fdf7f2"] ;
32 -> 33 ;
34 [label="squared_error = 0.0\nsamples = 1\nvalue = 0.064", fillcolor="#fef8f4"] ;
32 -> 34 ;
35 [label="squared_error = -0.0\nsamples = 1\nvalue = 0.05", fillcolor="#fef9f6"] ;
31 -> 35 ;
36 [label="Mach <= 0.25\nsquared_error = 0.0\nsamples = 5\nvalue = 0.028", fillcolor="#fefbf9"] ;
30 -> 36 ;
37 [label="Altitude <= 2784.0\nsquared_error = 0.0\nsamples = 2\nvalue = 0.04", fillcolor="#fefaf7"] ;
36 -> 37 ;
38 [label="squared_error = 0.0\nsamples = 1\nvalue = 0.043", fillcolor="#fefaf7"] ;
37 -> 38 ;
39 [label="squared_error = 0.0\nsamples = 1\nvalue = 0.037", fillcolor="#fefaf8"] ;
37 -> 39 ;
40 [label="Mach <= 0.55\nsquared_error = 0.0\nsamples = 3\nvalue = 0.019", fillcolor="#fefcfa"] ;
36 -> 40 ;
41 [label="Altitude <= 10147.0\nsquared_error = 0.0\nsamples = 2\nvalue = 0.024", fillcolor="#fefbf9"] ;
40 -> 41 ;
42 [label="squared_error = 0.0\nsamples = 1\nvalue = 0.021", fillcolor="#fefcfa"] ;
41 -> 42 ;
43 [label="squared_error = -0.0\nsamples = 1\nvalue = 0.027", fillcolor="#fefbf9"] ;
41 -> 43 ;
44 [label="squared_error = 0.0\nsamples = 1\nvalue = 0.01", fillcolor="#fefcfb"] ;
40 -> 44 ;
45 [label="AoA <= -5.5\nsquared_error = 0.0\nsamples = 35\nvalue = 0.008", fillcolor="#fefdfb"] ;
29 -> 45 ;
46 [label="Mach <= 0.15\nsquared_error = 0.0\nsamples = 10\nvalue = 0.019", fillcolor="#fefcfa"] ;
45 -> 46 ;
47 [label="squared_error = 0.0\nsamples = 1\nvalue = -0.009", fillcolor="#fffefd"] ;
46 -> 47 ;
48 [label="AoS <= 1.5\nsquared_error = 0.0\nsamples = 9\nvalue = 0.024", fillcolor="#fefbf9"] ;
46 -> 48 ;
49 [label="Altitude <= 5937.0\nsquared_error = 0.0\nsamples = 8\nvalue = 0.023", fillcolor="#fefbf9"] ;
48 -> 49 ;
50 [label="AoS <= -0.5\nsquared_error = 0.0\nsamples = 2\nvalue = 0.037", fillcolor="#fefaf8"] ;
49 -> 50 ;
51 [label="squared_error = 0.0\nsamples = 1\nvalue = 0.033", fillcolor="#fefbf8"] ;
50 -> 51 ;
52 [label="squared_error = 0.0\nsamples = 1\nvalue = 0.041", fillcolor="#fefaf7"] ;
50 -> 52 ;
53 [label="Altitude <= 6959.0\nsquared_error = 0.0\nsamples = 6\nvalue = 0.02", fillcolor="#fefcfa"] ;
49 -> 53 ;
54 [label="squared_error = 0.0\nsamples = 1\nvalue = 0.013", fillcolor="#fefcfb"] ;
53 -> 54 ;
55 [label="Altitude <= 14423.0\nsquared_error = 0.0\nsamples = 5\nvalue = 0.023", fillcolor="#fefbf9"] ;
53 -> 55 ;
56 [label="AoS <= -2.5\nsquared_error = 0.0\nsamples = 4\nvalue = 0.024", fillcolor="#fefbf9"] ;
55 -> 56 ;
57 [label="squared_error = 0.0\nsamples = 1\nvalue = 0.027", fillcolor="#fefbf9"] ;
56 -> 57 ;
58 [label="Mach <= 0.35\nsquared_error = 0.0\nsamples = 3\nvalue = 0.023", fillcolor="#fefbf9"] ;
56 -> 58 ;
59 [label="squared_error = 0.0\nsamples = 1\nvalue = 0.021", fillcolor="#fefcfa"] ;
58 -> 59 ;
60 [label="Mach <= 0.55\nsquared_error = 0.0\nsamples = 2\nvalue = 0.024", fillcolor="#fefbf9"] ;
58 -> 60 ;
61 [label="squared_error = 0.0\nsamples = 1\nvalue = 0.024", fillcolor="#fefbf9"] ;
60 -> 61 ;
62 [label="squared_error = 0.0\nsamples = 1\nvalue = 0.024", fillcolor="#fefbf9"] ;
60 -> 62 ;
63 [label="squared_error = -0.0\nsamples = 1\nvalue = 0.014", fillcolor="#fefcfa"] ;
55 -> 63 ;
64 [label="squared_error = -0.0\nsamples = 1\nvalue = 0.05", fillcolor="#fef9f6"] ;
48 -> 64 ;
65 [label="AoA <= 1.0\nsquared_error = 0.0\nsamples = 25\nvalue = 0.003", fillcolor="#fffdfc"] ;
45 -> 65 ;
66 [label="AoA <= -2.0\nsquared_error = 0.0\nsamples = 15\nvalue = -0.002", fillcolor="#fffdfc"] ;
65 -> 66 ;
67 [label="AoS <= 1.5\nsquared_error = 0.0\nsamples = 10\nvalue = 0.002", fillcolor="#fffdfc"] ;
66 -> 67 ;
68 [label="Altitude <= 12938.0\nsquared_error = 0.0\nsamples = 7\nvalue = 0.0", fillcolor="#fffdfc"] ;
67 -> 68 ;
69 [label="Mach <= 0.55\nsquared_error = 0.0\nsamples = 6\nvalue = 0.001", fillcolor="#fffdfc"] ;
68 -> 69 ;
70 [label="Altitude <= 1975.0\nsquared_error = 0.0\nsamples = 5\nvalue = -0.0", fillcolor="#fffdfc"] ;
69 -> 70 ;
71 [label="squared_error = 0.0\nsamples = 1\nvalue = -0.001", fillcolor="#fffdfc"] ;
70 -> 71 ;
72 [label="AoA <= -3.5\nsquared_error = 0.0\nsamples = 4\nvalue = 0.001", fillcolor="#fffdfc"] ;
70 -> 72 ;
73 [label="squared_error = 0.0\nsamples = 1\nvalue = -0.001", fillcolor="#fffdfc"] ;
72 -> 73 ;
74 [label="Mach <= 0.4\nsquared_error = 0.0\nsamples = 3\nvalue = 0.001", fillcolor="#fffdfc"] ;
72 -> 74 ;
75 [label="squared_error = 0.0\nsamples = 1\nvalue = 0.001", fillcolor="#fffdfc"] ;
74 -> 75 ;
76 [label="AoS <= -1.0\nsquared_error = 0.0\nsamples = 2\nvalue = 0.001", fillcolor="#fffdfc"] ;
74 -> 76 ;
77 [label="squared_error = 0.0\nsamples = 1\nvalue = 0.002", fillcolor="#fffdfc"] ;
76 -> 77 ;
78 [label="squared_error = -0.0\nsamples = 1\nvalue = 0.001", fillcolor="#fffdfc"] ;
76 -> 78 ;
79 [label="squared_error = 0.0\nsamples = 1\nvalue = 0.006", fillcolor="#fffdfb"] ;
69 -> 79 ;
80 [label="squared_error = -0.0\nsamples = 1\nvalue = -0.01", fillcolor="#fffefd"] ;
68 -> 80 ;
81 [label="Mach <= 0.25\nsquared_error = 0.0\nsamples = 3\nvalue = 0.007", fillcolor="#fffdfb"] ;
67 -> 81 ;
82 [label="squared_error = 0.0\nsamples = 1\nvalue = -0.002", fillcolor="#fffdfc"] ;
81 -> 82 ;
83 [label="Mach <= 0.4\nsquared_error = 0.0\nsamples = 2\nvalue = 0.009", fillcolor="#fefcfb"] ;
81 -> 83 ;
84 [label="squared_error = 0.0\nsamples = 1\nvalue = 0.008", fillcolor="#fefdfb"] ;
83 -> 84 ;
85 [label="squared_error = 0.0\nsamples = 1\nvalue = 0.012", fillcolor="#fefcfb"] ;
83 -> 85 ;
86 [label="AoS <= -0.5\nsquared_error = 0.0\nsamples = 5\nvalue = -0.011", fillcolor="#fffefe"] ;
66 -> 86 ;
87 [label="Mach <= 0.25\nsquared_error = 0.0\nsamples = 4\nvalue = -0.007", fillcolor="#fffefd"] ;
86 -> 87 ;
88 [label="squared_error = 0.0\nsamples = 1\nvalue = 0.005", fillcolor="#fffdfb"] ;
87 -> 88 ;
89 [label="Altitude <= 6353.5\nsquared_error = 0.0\nsamples = 3\nvalue = -0.01", fillcolor="#fffefd"] ;
87 -> 89 ;
90 [label="squared_error = 0.0\nsamples = 1\nvalue = -0.007", fillcolor="#fffefd"] ;
89 -> 90 ;
91 [label="AoS <= -1.5\nsquared_error = 0.0\nsamples = 2\nvalue = -0.011", fillcolor="#fffefd"] ;
89 -> 91 ;
92 [label="squared_error = 0.0\nsamples = 1\nvalue = -0.009", fillcolor="#fffefd"] ;
91 -> 92 ;
93 [label="squared_error = -0.0\nsamples = 1\nvalue = -0.012", fillcolor="#fffefe"] ;
91 -> 93 ;
94 [label="squared_error = 0.0\nsamples = 1\nvalue = -0.023", fillcolor="#ffffff"] ;
86 -> 94 ;
95 [label="AoS <= -2.5\nsquared_error = 0.0\nsamples = 10\nvalue = 0.014", fillcolor="#fefcfa"] ;
65 -> 95 ;
96 [label="Altitude <= 7102.5\nsquared_error = 0.0\nsamples = 3\nvalue = 0.021", fillcolor="#fefcfa"] ;
95 -> 96 ;
97 [label="squared_error = 0.0\nsamples = 1\nvalue = 0.016", fillcolor="#fefcfa"] ;
96 -> 97 ;
98 [label="Altitude <= 11569.0\nsquared_error = 0.0\nsamples = 2\nvalue = 0.023", fillcolor="#fefbf9"] ;
96 -> 98 ;
99 [label="squared_error = 0.0\nsamples = 1\nvalue = 0.023", fillcolor="#fefbf9"] ;
98 -> 99 ;
100 [label="squared_error = -0.0\nsamples = 1\nvalue = 0.024", fillcolor="#fefbf9"] ;
98 -> 100 ;
101 [label="Mach <= 0.25\nsquared_error = 0.0\nsamples = 7\nvalue = 0.01", fillcolor="#fefcfb"] ;
95 -> 101 ;
102 [label="squared_error = 0.0\nsamples = 1\nvalue = -0.013", fillcolor="#fffefe"] ;
101 -> 102 ;
103 [label="Mach <= 0.35\nsquared_error = 0.0\nsamples = 6\nvalue = 0.013", fillcolor="#fefcfb"] ;
101 -> 103 ;
104 [label="AoS <= -1.5\nsquared_error = 0.0\nsamples = 4\nvalue = 0.011", fillcolor="#fefcfb"] ;
103 -> 104 ;
105 [label="squared_error = 0.0\nsamples = 1\nvalue = 0.014", fillcolor="#fefcfa"] ;
104 -> 105 ;
106 [label="AoS <= 0.0\nsquared_error = 0.0\nsamples = 3\nvalue = 0.009", fillcolor="#fefcfb"] ;
104 -> 106 ;
107 [label="squared_error = 0.0\nsamples = 2\nvalue = 0.009", fillcolor="#fefcfb"] ;
106 -> 107 ;
108 [label="squared_error = -0.0\nsamples = 1\nvalue = 0.008", fillcolor="#fefdfb"] ;
106 -> 108 ;
109 [label="Altitude <= 12056.0\nsquared_error = 0.0\nsamples = 2\nvalue = 0.018", fillcolor="#fefcfa"] ;
103 -> 109 ;
110 [label="squared_error = 0.0\nsamples = 1\nvalue = 0.016", fillcolor="#fefcfa"] ;
109 -> 110 ;
111 [label="squared_error = -0.0\nsamples = 1\nvalue = 0.02", fillcolor="#fefcfa"] ;
109 -> 111 ;
112 [label="AoA <= -5.0\nsquared_error = 0.0\nsamples = 10\nvalue = 0.051", fillcolor="#fef9f6"] ;
28 -> 112 ;
113 [label="AoA <= -8.0\nsquared_error = 0.0\nsamples = 5\nvalue = 0.067", fillcolor="#fef8f4"] ;
112 -> 113 ;
114 [label="Mach <= 0.25\nsquared_error = 0.0\nsamples = 2\nvalue = 0.075", fillcolor="#fdf7f3"] ;
113 -> 114 ;
115 [label="squared_error = -0.0\nsamples = 1\nvalue = 0.073", fillcolor="#fdf7f3"] ;
114 -> 115 ;
116 [label="squared_error = 0.0\nsamples = 1\nvalue = 0.081", fillcolor="#fdf7f2"] ;
114 -> 116 ;
117 [label="Altitude <= 1661.0\nsquared_error = 0.0\nsamples = 3\nvalue = 0.056", fillcolor="#fef9f5"] ;
113 -> 117 ;
118 [label="Mach <= 0.45\nsquared_error = 0.0\nsamples = 2\nvalue = 0.06", fillcolor="#fef9f5"] ;
117 -> 118 ;
119 [label="squared_error = 0.0\nsamples = 1\nvalue = 0.06", fillcolor="#fef8f5"] ;
118 -> 119 ;
120 [label="squared_error = 0.0\nsamples = 1\nvalue = 0.059", fillcolor="#fef9f5"] ;
118 -> 120 ;
121 [label="squared_error = 0.0\nsamples = 1\nvalue = 0.048", fillcolor="#fef9f6"] ;
117 -> 121 ;
122 [label="Altitude <= 12537.5\nsquared_error = 0.0\nsamples = 5\nvalue = 0.032", fillcolor="#fefbf8"] ;
112 -> 122 ;
123 [label="AoA <= 1.0\nsquared_error = 0.0\nsamples = 4\nvalue = 0.033", fillcolor="#fefbf8"] ;
122 -> 123 ;
124 [label="AoA <= -2.5\nsquared_error = 0.0\nsamples = 3\nvalue = 0.033", fillcolor="#fefbf8"] ;
123 -> 124 ;
125 [label="squared_error = 0.0\nsamples = 1\nvalue = 0.034", fillcolor="#fefaf8"] ;
124 -> 125 ;
126 [label="Mach <= 0.55\nsquared_error = 0.0\nsamples = 2\nvalue = 0.032", fillcolor="#fefbf8"] ;
124 -> 126 ;
127 [label="squared_error = 0.0\nsamples = 1\nvalue = 0.033", fillcolor="#fefbf8"] ;
126 -> 127 ;
128 [label="squared_error = 0.0\nsamples = 1\nvalue = 0.031", fillcolor="#fefbf8"] ;
126 -> 128 ;
129 [label="squared_error = 0.0\nsamples = 1\nvalue = 0.036", fillcolor="#fefaf8"] ;
123 -> 129 ;
130 [label="squared_error = -0.0\nsamples = 1\nvalue = 0.026", fillcolor="#fefbf9"] ;
122 -> 130 ;
131 [label="Mach <= 0.55\nsquared_error = 0.001\nsamples = 18\nvalue = 0.055", fillcolor="#fef9f5"] ;
27 -> 131 ;
132 [label="Mach <= 0.35\nsquared_error = 0.0\nsamples = 16\nvalue = 0.048", fillcolor="#fef9f6"] ;
131 -> 132 ;
133 [label="AoA <= 6.5\nsquared_error = 0.0\nsamples = 9\nvalue = 0.041", fillcolor="#fefaf7"] ;
132 -> 133 ;
134 [label="AoS <= -2.0\nsquared_error = 0.0\nsamples = 6\nvalue = 0.03", fillcolor="#fefbf8"] ;
133 -> 134 ;
135 [label="Mach <= 0.25\nsquared_error = 0.0\nsamples = 2\nvalue = 0.046", fillcolor="#fefaf7"] ;
134 -> 135 ;
136 [label="squared_error = 0.0\nsamples = 1\nvalue = 0.044", fillcolor="#fefaf7"] ;
135 -> 136 ;
137 [label="squared_error = 0.0\nsamples = 1\nvalue = 0.048", fillcolor="#fef9f6"] ;
135 -> 137 ;
138 [label="Mach <= 0.25\nsquared_error = 0.0\nsamples = 4\nvalue = 0.023", fillcolor="#fefbf9"] ;
134 -> 138 ;
139 [label="AoS <= -0.5\nsquared_error = 0.0\nsamples = 2\nvalue = 0.012", fillcolor="#fefcfb"] ;
138 -> 139 ;
140 [label="squared_error = 0.0\nsamples = 1\nvalue = 0.008", fillcolor="#fefdfb"] ;
139 -> 140 ;
141 [label="squared_error = 0.0\nsamples = 1\nvalue = 0.017", fillcolor="#fefcfa"] ;
139 -> 141 ;
142 [label="Altitude <= 8581.0\nsquared_error = 0.0\nsamples = 2\nvalue = 0.03", fillcolor="#fefbf8"] ;
138 -> 142 ;
143 [label="squared_error = 0.0\nsamples = 1\nvalue = 0.035", fillcolor="#fefaf8"] ;
142 -> 143 ;
144 [label="squared_error = 0.0\nsamples = 1\nvalue = 0.028", fillcolor="#fefbf9"] ;
142 -> 144 ;
145 [label="Altitude <= 8448.0\nsquared_error = 0.0\nsamples = 3\nvalue = 0.052", fillcolor="#fef9f6"] ;
133 -> 145 ;
146 [label="squared_error = -0.0\nsamples = 1\nvalue = 0.046", fillcolor="#fefaf6"] ;
145 -> 146 ;
147 [label="AoA <= 7.5\nsquared_error = 0.0\nsamples = 2\nvalue = 0.056", fillcolor="#fef9f5"] ;
145 -> 147 ;
148 [label="squared_error = -0.0\nsamples = 1\nvalue = 0.055", fillcolor="#fef9f5"] ;
147 -> 148 ;
149 [label="squared_error = -0.0\nsamples = 1\nvalue = 0.06", fillcolor="#fef9f5"] ;
147 -> 149 ;
150 [label="AoA <= 7.5\nsquared_error = 0.0\nsamples = 7\nvalue = 0.057", fillcolor="#fef9f5"] ;
132 -> 150 ;
151 [label="Altitude <= 4821.5\nsquared_error = 0.0\nsamples = 6\nvalue = 0.054", fillcolor="#fef9f5"] ;
150 -> 151 ;
152 [label="squared_error = 0.0\nsamples = 2\nvalue = 0.047", fillcolor="#fef9f6"] ;
151 -> 152 ;
153 [label="Altitude <= 8146.0\nsquared_error = 0.0\nsamples = 4\nvalue = 0.059", fillcolor="#fef9f5"] ;
151 -> 153 ;
154 [label="AoS <= 3.0\nsquared_error = 0.0\nsamples = 3\nvalue = 0.063", fillcolor="#fef8f4"] ;
153 -> 154 ;
155 [label="Altitude <= 6625.0\nsquared_error = 0.0\nsamples = 2\nvalue = 0.061", fillcolor="#fef8f5"] ;
154 -> 155 ;
156 [label="squared_error = 0.0\nsamples = 1\nvalue = 0.061", fillcolor="#fef8f5"] ;
155 -> 156 ;
157 [label="squared_error = 0.0\nsamples = 1\nvalue = 0.06", fillcolor="#fef8f5"] ;
155 -> 157 ;
158 [label="squared_error = 0.0\nsamples = 1\nvalue = 0.071", fillcolor="#fdf8f3"] ;
154 -> 158 ;
159 [label="squared_error = -0.0\nsamples = 1\nvalue = 0.04", fillcolor="#fefaf7"] ;
153 -> 159 ;
160 [label="squared_error = 0.0\nsamples = 1\nvalue = 0.088", fillcolor="#fdf6f1"] ;
150 -> 160 ;
161 [label="AoS <= 1.5\nsquared_error = 0.0\nsamples = 2\nvalue = 0.118", fillcolor="#fdf4ee"] ;
131 -> 161 ;
162 [label="squared_error = 0.0\nsamples = 1\nvalue = 0.094", fillcolor="#fdf6f1"] ;
161 -> 162 ;
163 [label="squared_error = 0.0\nsamples = 1\nvalue = 0.13", fillcolor="#fdf3ec"] ;
161 -> 163 ;
164 [label="AoA <= 13.5\nsquared_error = 0.002\nsamples = 17\nvalue = 0.149", fillcolor="#fcf2ea"] ;
2 -> 164 ;
165 [label="AoS <= 2.5\nsquared_error = 0.001\nsamples = 15\nvalue = 0.138", fillcolor="#fcf2eb"] ;
164 -> 165 ;
166 [label="AoA <= 10.5\nsquared_error = 0.0\nsamples = 12\nvalue = 0.124", fillcolor="#fdf3ed"] ;
165 -> 166 ;
167 [label="Altitude <= 2132.0\nsquared_error = 0.0\nsamples = 5\nvalue = 0.107", fillcolor="#fdf5ef"] ;
166 -> 167 ;
168 [label="squared_error = 0.0\nsamples = 1\nvalue = 0.122", fillcolor="#fdf4ed"] ;
167 -> 168 ;
169 [label="Altitude <= 7081.0\nsquared_error = 0.0\nsamples = 4\nvalue = 0.105", fillcolor="#fdf5ef"] ;
167 -> 169 ;
170 [label="Altitude <= 4094.5\nsquared_error = 0.0\nsamples = 3\nvalue = 0.102", fillcolor="#fdf5f0"] ;
169 -> 170 ;
171 [label="squared_error = 0.0\nsamples = 1\nvalue = 0.099", fillcolor="#fdf5f0"] ;
170 -> 171 ;
172 [label="Mach <= 0.4\nsquared_error = 0.0\nsamples = 2\nvalue = 0.103", fillcolor="#fdf5ef"] ;
170 -> 172 ;
173 [label="squared_error = 0.0\nsamples = 1\nvalue = 0.102", fillcolor="#fdf5f0"] ;
172 -> 173 ;
174 [label="squared_error = -0.0\nsamples = 1\nvalue = 0.103", fillcolor="#fdf5ef"] ;
172 -> 174 ;
175 [label="squared_error = 0.0\nsamples = 1\nvalue = 0.115", fillcolor="#fdf4ee"] ;
169 -> 175 ;
176 [label="Mach <= 0.15\nsquared_error = 0.0\nsamples = 7\nvalue = 0.134", fillcolor="#fcf3ec"] ;
166 -> 176 ;
177 [label="AoS <= 0.0\nsquared_error = 0.0\nsamples = 2\nvalue = 0.119", fillcolor="#fdf4ed"] ;
176 -> 177 ;
178 [label="squared_error = 0.0\nsamples = 1\nvalue = 0.125", fillcolor="#fdf3ed"] ;
177 -> 178 ;
179 [label="squared_error = 0.0\nsamples = 1\nvalue = 0.113", fillcolor="#fdf4ee"] ;
177 -> 179 ;
180 [label="AoS <= 0.5\nsquared_error = 0.0\nsamples = 5\nvalue = 0.144", fillcolor="#fcf2ea"] ;
176 -> 180 ;
181 [label="AoS <= -0.5\nsquared_error = 0.0\nsamples = 4\nvalue = 0.151", fillcolor="#fcf1ea"] ;
180 -> 181 ;
182 [label="AoS <= -1.5\nsquared_error = 0.0\nsamples = 3\nvalue = 0.148", fillcolor="#fcf2ea"] ;
181 -> 182 ;
183 [label="AoS <= -2.5\nsquared_error = 0.0\nsamples = 2\nvalue = 0.15", fillcolor="#fcf1ea"] ;
182 -> 183 ;
184 [label="squared_error = 0.0\nsamples = 1\nvalue = 0.148", fillcolor="#fcf2ea"] ;
183 -> 184 ;
185 [label="squared_error = 0.0\nsamples = 1\nvalue = 0.151", fillcolor="#fcf1ea"] ;
183 -> 185 ;
186 [label="squared_error = -0.0\nsamples = 1\nvalue = 0.145", fillcolor="#fcf2ea"] ;
182 -> 186 ;
187 [label="squared_error = -0.0\nsamples = 1\nvalue = 0.158", fillcolor="#fcf1e9"] ;
181 -> 187 ;
188 [label="squared_error = -0.0\nsamples = 1\nvalue = 0.131", fillcolor="#fdf3ec"] ;
180 -> 188 ;
189 [label="Altitude <= 2378.0\nsquared_error = 0.0\nsamples = 3\nvalue = 0.185", fillcolor="#fcefe5"] ;
165 -> 189 ;
190 [label="squared_error = 0.0\nsamples = 1\nvalue = 0.208", fillcolor="#fbede3"] ;
189 -> 190 ;
191 [label="Altitude <= 4140.5\nsquared_error = 0.0\nsamples = 2\nvalue = 0.17", fillcolor="#fcf0e7"] ;
189 -> 191 ;
192 [label="squared_error = 0.0\nsamples = 1\nvalue = 0.165", fillcolor="#fcf0e8"] ;
191 -> 192 ;
193 [label="squared_error = -0.0\nsamples = 1\nvalue = 0.18", fillcolor="#fcefe6"] ;
191 -> 193 ;
194 [label="Altitude <= 11355.0\nsquared_error = 0.0\nsamples = 2\nvalue = 0.22", fillcolor="#fbece1"] ;
164 -> 194 ;
195 [label="squared_error = 0.0\nsamples = 1\nvalue = 0.219", fillcolor="#fbece1"] ;
194 -> 195 ;
196 [label="squared_error = -0.0\nsamples = 1\nvalue = 0.223", fillcolor="#fbece1"] ;
194 -> 196 ;
197 [label="Mach <= 0.45\nsquared_error = 0.01\nsamples = 70\nvalue = 0.236", fillcolor="#fbebdf"] ;
1 -> 197 ;
198 [label="AoS <= 8.5\nsquared_error = 0.009\nsamples = 45\nvalue = 0.272", fillcolor="#fae8db"] ;
197 -> 198 ;
199 [label="Altitude <= 5658.5\nsquared_error = 0.007\nsamples = 27\nvalue = 0.232", fillcolor="#fbebe0"] ;
198 -> 199 ;
200 [label="Mach <= 0.15\nsquared_error = 0.014\nsamples = 5\nvalue = 0.325", fillcolor="#f9e4d4"] ;
199 -> 200 ;
201 [label="squared_error = 0.0\nsamples = 1\nvalue = 0.605", fillcolor="#f5ceb2"] ;
200 -> 201 ;
202 [label="AoA <= 6.0\nsquared_error = 0.001\nsamples = 4\nvalue = 0.278", fillcolor="#fae7da"] ;
200 -> 202 ;
203 [label="squared_error = 0.0\nsamples = 1\nvalue = 0.206", fillcolor="#fbede3"] ;
202 -> 203 ;
204 [label="AoA <= 13.5\nsquared_error = 0.0\nsamples = 3\nvalue = 0.293", fillcolor="#fae6d8"] ;
202 -> 204 ;
205 [label="AoA <= 10.0\nsquared_error = 0.0\nsamples = 2\nvalue = 0.276", fillcolor="#fae8da"] ;
204 -> 205 ;
206 [label="squared_error = 0.0\nsamples = 1\nvalue = 0.283", fillcolor="#fae7d9"] ;
205 -> 206 ;
207 [label="squared_error = -0.0\nsamples = 1\nvalue = 0.263", fillcolor="#fae9dc"] ;
205 -> 207 ;
208 [label="squared_error = 0.0\nsamples = 1\nvalue = 0.318", fillcolor="#f9e4d5"] ;
204 -> 208 ;
209 [label="AoA <= 11.5\nsquared_error = 0.003\nsamples = 22\nvalue = 0.214", fillcolor="#fbece2"] ;
199 -> 209 ;
210 [label="AoA <= -10.5\nsquared_error = 0.003\nsamples = 19\nvalue = 0.203", fillcolor="#fbede3"] ;
209 -> 210 ;
211 [label="AoS <= 6.5\nsquared_error = 0.002\nsamples = 6\nvalue = 0.243", fillcolor="#fbeade"] ;
210 -> 211 ;
212 [label="Altitude <= 10094.0\nsquared_error = 0.0\nsamples = 2\nvalue = 0.199", fillcolor="#fbeee4"] ;
211 -> 212 ;
213 [label="squared_error = 0.0\nsamples = 1\nvalue = 0.181", fillcolor="#fcefe6"] ;
212 -> 213 ;
214 [label="squared_error = -0.0\nsamples = 1\nvalue = 0.216", fillcolor="#fbece2"] ;
212 -> 214 ;
215 [label="AoA <= -13.5\nsquared_error = 0.0\nsamples = 4\nvalue = 0.273", fillcolor="#fae8db"] ;
211 -> 215 ;
216 [label="Altitude <= 11269.0\nsquared_error = 0.0\nsamples = 2\nvalue = 0.302", fillcolor="#fae5d7"] ;
215 -> 216 ;
217 [label="squared_error = 0.0\nsamples = 1\nvalue = 0.315", fillcolor="#fae5d5"] ;
216 -> 217 ;
218 [label="squared_error = 0.0\nsamples = 1\nvalue = 0.29", fillcolor="#fae6d8"] ;
216 -> 218 ;
219 [label="Mach <= 0.35\nsquared_error = 0.0\nsamples = 2\nvalue = 0.258", fillcolor="#fae9dc"] ;
215 -> 219 ;
220 [label="squared_error = 0.0\nsamples = 1\nvalue = 0.26", fillcolor="#fae9dc"] ;
219 -> 220 ;
221 [label="squared_error = 0.0\nsamples = 1\nvalue = 0.252", fillcolor="#fbe9dd"] ;
219 -> 221 ;
222 [label="Mach <= 0.15\nsquared_error = 0.002\nsamples = 13\nvalue = 0.183", fillcolor="#fcefe6"] ;
210 -> 222 ;
223 [label="Altitude <= 8581.5\nsquared_error = 0.0\nsamples = 2\nvalue = 0.26", fillcolor="#fae9dc"] ;
222 -> 223 ;
224 [label="squared_error = 0.0\nsamples = 1\nvalue = 0.261", fillcolor="#fae9dc"] ;
223 -> 224 ;
225 [label="squared_error = -0.0\nsamples = 1\nvalue = 0.258", fillcolor="#fae9dc"] ;
223 -> 225 ;
226 [label="AoA <= 8.0\nsquared_error = 0.001\nsamples = 11\nvalue = 0.171", fillcolor="#fcf0e7"] ;
222 -> 226 ;
227 [label="AoA <= -3.5\nsquared_error = 0.0\nsamples = 9\nvalue = 0.15", fillcolor="#fcf1ea"] ;
226 -> 227 ;
228 [label="AoS <= 6.5\nsquared_error = 0.0\nsamples = 5\nvalue = 0.169", fillcolor="#fcf0e7"] ;
227 -> 228 ;
229 [label="AoA <= -6.5\nsquared_error = 0.0\nsamples = 3\nvalue = 0.153", fillcolor="#fcf1e9"] ;
228 -> 229 ;
230 [label="Altitude <= 10315.0\nsquared_error = 0.0\nsamples = 2\nvalue = 0.162", fillcolor="#fcf0e8"] ;
229 -> 230 ;
231 [label="squared_error = 0.0\nsamples = 1\nvalue = 0.157", fillcolor="#fcf1e9"] ;
230 -> 231 ;
232 [label="squared_error = 0.0\nsamples = 1\nvalue = 0.167", fillcolor="#fcf0e8"] ;
230 -> 232 ;
233 [label="squared_error = -0.0\nsamples = 1\nvalue = 0.136", fillcolor="#fcf3eb"] ;
229 -> 233 ;
234 [label="AoS <= 7.5\nsquared_error = 0.0\nsamples = 2\nvalue = 0.193", fillcolor="#fceee4"] ;
228 -> 234 ;
235 [label="squared_error = 0.0\nsamples = 1\nvalue = 0.2", fillcolor="#fbeee4"] ;
234 -> 235 ;
236 [label="squared_error = -0.0\nsamples = 1\nvalue = 0.186", fillcolor="#fcefe5"] ;
234 -> 236 ;
237 [label="Mach <= 0.25\nsquared_error = 0.0\nsamples = 4\nvalue = 0.138", fillcolor="#fcf2eb"] ;
227 -> 237 ;
238 [label="squared_error = 0.0\nsamples = 1\nvalue = 0.128", fillcolor="#fdf3ec"] ;
237 -> 238 ;
239 [label="Altitude <= 11451.5\nsquared_error = 0.0\nsamples = 3\nvalue = 0.141", fillcolor="#fcf2eb"] ;
237 -> 239 ;
240 [label="squared_error = 0.0\nsamples = 1\nvalue = 0.139", fillcolor="#fcf2eb"] ;
239 -> 240 ;
241 [label="AoA <= -1.0\nsquared_error = 0.0\nsamples = 2\nvalue = 0.142", fillcolor="#fcf2eb"] ;
239 -> 241 ;
242 [label="squared_error = -0.0\nsamples = 1\nvalue = 0.141", fillcolor="#fcf2eb"] ;
241 -> 242 ;
243 [label="squared_error = 0.0\nsamples = 1\nvalue = 0.143", fillcolor="#fcf2eb"] ;
241 -> 243 ;
244 [label="Altitude <= 8621.0\nsquared_error = 0.0\nsamples = 2\nvalue = 0.225", fillcolor="#fbece0"] ;
226 -> 244 ;
245 [label="squared_error = 0.0\nsamples = 1\nvalue = 0.232", fillcolor="#fbebe0"] ;
244 -> 245 ;
246 [label="squared_error = 0.0\nsamples = 1\nvalue = 0.214", fillcolor="#fbece2"] ;
244 -> 246 ;
247 [label="AoA <= 12.5\nsquared_error = 0.0\nsamples = 3\nvalue = 0.285", fillcolor="#fae7d9"] ;
209 -> 247 ;
248 [label="squared_error = 0.0\nsamples = 1\nvalue = 0.263", fillcolor="#fae9dc"] ;
247 -> 248 ;
249 [label="AoS <= 6.5\nsquared_error = 0.0\nsamples = 2\nvalue = 0.291", fillcolor="#fae6d8"] ;
247 -> 249 ;
250 [label="squared_error = 0.0\nsamples = 1\nvalue = 0.293", fillcolor="#fae6d8"] ;
249 -> 250 ;
251 [label="squared_error = 0.0\nsamples = 1\nvalue = 0.289", fillcolor="#fae7d9"] ;
249 -> 251 ;
252 [label="Mach <= 0.25\nsquared_error = 0.007\nsamples = 18\nvalue = 0.32", fillcolor="#f9e4d5"] ;
198 -> 252 ;
253 [label="Altitude <= 9826.0\nsquared_error = 0.006\nsamples = 5\nvalue = 0.432", fillcolor="#f8dbc7"] ;
252 -> 253 ;
254 [label="Altitude <= 5549.0\nsquared_error = 0.002\nsamples = 4\nvalue = 0.409", fillcolor="#f8ddca"] ;
253 -> 254 ;
255 [label="AoS <= 9.5\nsquared_error = 0.0\nsamples = 2\nvalue = 0.44", fillcolor="#f8dbc6"] ;
254 -> 255 ;
256 [label="squared_error = 0.0\nsamples = 1\nvalue = 0.442", fillcolor="#f7dbc6"] ;
255 -> 256 ;
257 [label="squared_error = 0.0\nsamples = 1\nvalue = 0.439", fillcolor="#f8dbc6"] ;
255 -> 257 ;
258 [label="AoS <= 9.5\nsquared_error = 0.0\nsamples = 2\nvalue = 0.359", fillcolor="#f9e1d0"] ;
254 -> 258 ;
259 [label="squared_error = 0.0\nsamples = 1\nvalue = 0.327", fillcolor="#f9e4d4"] ;
258 -> 259 ;
260 [label="squared_error = 0.0\nsamples = 1\nvalue = 0.374", fillcolor="#f9e0ce"] ;
258 -> 260 ;
261 [label="squared_error = -0.0\nsamples = 1\nvalue = 0.616", fillcolor="#f5cdb0"] ;
253 -> 261 ;
262 [label="AoA <= -11.5\nsquared_error = 0.002\nsamples = 13\nvalue = 0.281", fillcolor="#fae7da"] ;
252 -> 262 ;
263 [label="Altitude <= 6496.5\nsquared_error = 0.0\nsamples = 2\nvalue = 0.37", fillcolor="#f9e0cf"] ;
262 -> 263 ;
264 [label="squared_error = 0.0\nsamples = 1\nvalue = 0.361", fillcolor="#f9e1d0"] ;
263 -> 264 ;
265 [label="squared_error = 0.0\nsamples = 1\nvalue = 0.375", fillcolor="#f9e0ce"] ;
263 -> 265 ;
266 [label="AoA <= 11.5\nsquared_error = 0.001\nsamples = 11\nvalue = 0.269", fillcolor="#fae8db"] ;
262 -> 266 ;
267 [label="AoA <= -0.5\nsquared_error = 0.001\nsamples = 10\nvalue = 0.264", fillcolor="#fae8dc"] ;
266 -> 267 ;
268 [label="Altitude <= 11727.5\nsquared_error = 0.0\nsamples = 4\nvalue = 0.234", fillcolor="#fbebdf"] ;
267 -> 268 ;
269 [label="AoA <= -6.0\nsquared_error = 0.0\nsamples = 3\nvalue = 0.226", fillcolor="#fbebe0"] ;
268 -> 269 ;
270 [label="squared_error = 0.0\nsamples = 1\nvalue = 0.237", fillcolor="#fbebdf"] ;
269 -> 270 ;
271 [label="Mach <= 0.35\nsquared_error = 0.0\nsamples = 2\nvalue = 0.221", fillcolor="#fbece1"] ;
269 -> 271 ;
272 [label="squared_error = 0.0\nsamples = 1\nvalue = 0.223", fillcolor="#fbece1"] ;
271 -> 272 ;
273 [label="squared_error = -0.0\nsamples = 1\nvalue = 0.215", fillcolor="#fbece2"] ;
271 -> 273 ;
274 [label="squared_error = 0.0\nsamples = 1\nvalue = 0.278", fillcolor="#fae7da"] ;
268 -> 274 ;
275 [label="Altitude <= 9474.0\nsquared_error = 0.0\nsamples = 6\nvalue = 0.279", fillcolor="#fae7da"] ;
267 -> 275 ;
276 [label="AoA <= 8.0\nsquared_error = 0.0\nsamples = 5\nvalue = 0.274", fillcolor="#fae8da"] ;
275 -> 276 ;
277 [label="AoA <= 2.5\nsquared_error = 0.0\nsamples = 4\nvalue = 0.271", fillcolor="#fae8db"] ;
276 -> 277 ;
278 [label="squared_error = 0.0\nsamples = 2\nvalue = 0.275", fillcolor="#fae8da"] ;
277 -> 278 ;
279 [label="AoA <= 6.0\nsquared_error = 0.0\nsamples = 2\nvalue = 0.269", fillcolor="#fae8db"] ;
277 -> 279 ;
280 [label="squared_error = 0.0\nsamples = 1\nvalue = 0.248", fillcolor="#fbeade"] ;
279 -> 280 ;
281 [label="squared_error = 0.0\nsamples = 1\nvalue = 0.273", fillcolor="#fae8db"] ;
279 -> 281 ;
282 [label="squared_error = 0.0\nsamples = 1\nvalue = 0.302", fillcolor="#fae6d7"] ;
276 -> 282 ;
283 [label="squared_error = -0.0\nsamples = 1\nvalue = 0.313", fillcolor="#fae5d6"] ;
275 -> 283 ;
284 [label="squared_error = -0.0\nsamples = 1\nvalue = 0.381", fillcolor="#f8dfcd"] ;
266 -> 284 ;
285 [label="AoS <= 8.5\nsquared_error = 0.002\nsamples = 25\nvalue = 0.157", fillcolor="#fcf1e9"] ;
197 -> 285 ;
286 [label="Altitude <= 9942.0\nsquared_error = 0.001\nsamples = 18\nvalue = 0.14", fillcolor="#fcf2eb"] ;
285 -> 286 ;
287 [label="AoS <= 6.5\nsquared_error = 0.0\nsamples = 9\nvalue = 0.118", fillcolor="#fdf4ee"] ;
286 -> 287 ;
288 [label="AoS <= 5.5\nsquared_error = 0.0\nsamples = 3\nvalue = 0.133", fillcolor="#fcf3ec"] ;
287 -> 288 ;
289 [label="squared_error = 0.0\nsamples = 1\nvalue = 0.1", fillcolor="#fdf5f0"] ;
288 -> 289 ;
290 [label="Mach <= 0.55\nsquared_error = 0.0\nsamples = 2\nvalue = 0.141", fillcolor="#fcf2eb"] ;
288 -> 290 ;
291 [label="squared_error = 0.0\nsamples = 1\nvalue = 0.139", fillcolor="#fcf2eb"] ;
290 -> 291 ;
292 [label="squared_error = -0.0\nsamples = 1\nvalue = 0.143", fillcolor="#fcf2eb"] ;
290 -> 292 ;
293 [label="AoS <= 7.5\nsquared_error = 0.0\nsamples = 6\nvalue = 0.11", fillcolor="#fdf5ef"] ;
287 -> 293 ;
294 [label="Altitude <= 2706.5\nsquared_error = 0.0\nsamples = 3\nvalue = 0.097", fillcolor="#fdf6f0"] ;
293 -> 294 ;
295 [label="squared_error = 0.0\nsamples = 1\nvalue = 0.103", fillcolor="#fdf5ef"] ;
294 -> 295 ;
296 [label="AoA <= 0.0\nsquared_error = 0.0\nsamples = 2\nvalue = 0.095", fillcolor="#fdf6f0"] ;
294 -> 296 ;
297 [label="squared_error = 0.0\nsamples = 1\nvalue = 0.093", fillcolor="#fdf6f1"] ;
296 -> 297 ;
298 [label="squared_error = -0.0\nsamples = 1\nvalue = 0.097", fillcolor="#fdf6f0"] ;
296 -> 298 ;
299 [label="Altitude <= 6595.0\nsquared_error = 0.0\nsamples = 3\nvalue = 0.126", fillcolor="#fdf3ed"] ;
293 -> 299 ;
300 [label="AoA <= -5.5\nsquared_error = 0.0\nsamples = 2\nvalue = 0.129", fillcolor="#fdf3ec"] ;
299 -> 300 ;
301 [label="squared_error = 0.0\nsamples = 1\nvalue = 0.128", fillcolor="#fdf3ec"] ;
300 -> 301 ;
302 [label="squared_error = -0.0\nsamples = 1\nvalue = 0.13", fillcolor="#fdf3ec"] ;
300 -> 302 ;
303 [label="squared_error = 0.0\nsamples = 1\nvalue = 0.118", fillcolor="#fdf4ee"] ;
299 -> 303 ;
304 [label="AoA <= 4.0\nsquared_error = 0.001\nsamples = 9\nvalue = 0.165", fillcolor="#fcf0e8"] ;
286 -> 304 ;
305 [label="AoA <= -5.0\nsquared_error = 0.001\nsamples = 6\nvalue = 0.151", fillcolor="#fcf1ea"] ;
304 -> 305 ;
306 [label="Altitude <= 14221.0\nsquared_error = 0.0\nsamples = 5\nvalue = 0.159", fillcolor="#fcf1e9"] ;
305 -> 306 ;
307 [label="Altitude <= 13094.5\nsquared_error = 0.0\nsamples = 4\nvalue = 0.166", fillcolor="#fcf0e8"] ;
306 -> 307 ;
308 [label="Altitude <= 11963.5\nsquared_error = 0.0\nsamples = 3\nvalue = 0.16", fillcolor="#fcf1e8"] ;
307 -> 308 ;
309 [label="Altitude <= 11330.5\nsquared_error = 0.0\nsamples = 2\nvalue = 0.163", fillcolor="#fcf0e8"] ;
308 -> 309 ;
310 [label="squared_error = 0.0\nsamples = 1\nvalue = 0.164", fillcolor="#fcf0e8"] ;
309 -> 310 ;
311 [label="squared_error = 0.0\nsamples = 1\nvalue = 0.16", fillcolor="#fcf1e8"] ;
309 -> 311 ;
312 [label="squared_error = -0.0\nsamples = 1\nvalue = 0.151", fillcolor="#fcf1ea"] ;
308 -> 312 ;
313 [label="squared_error = 0.0\nsamples = 1\nvalue = 0.193", fillcolor="#fbeee4"] ;
307 -> 313 ;
314 [label="squared_error = -0.0\nsamples = 1\nvalue = 0.115", fillcolor="#fdf4ee"] ;
306 -> 314 ;
315 [label="squared_error = 0.0\nsamples = 1\nvalue = 0.094", fillcolor="#fdf6f1"] ;
305 -> 315 ;
316 [label="Altitude <= 13160.0\nsquared_error = 0.0\nsamples = 3\nvalue = 0.194", fillcolor="#fbeee4"] ;
304 -> 316 ;
317 [label="Altitude <= 12703.5\nsquared_error = 0.0\nsamples = 2\nvalue = 0.212", fillcolor="#fbede2"] ;
316 -> 317 ;
318 [label="squared_error = 0.0\nsamples = 1\nvalue = 0.218", fillcolor="#fbece1"] ;
317 -> 318 ;
319 [label="squared_error = -0.0\nsamples = 1\nvalue = 0.205", fillcolor="#fbede3"] ;
317 -> 319 ;
320 [label="squared_error = -0.0\nsamples = 1\nvalue = 0.176", fillcolor="#fcefe6"] ;
316 -> 320 ;
321 [label="Altitude <= 12353.5\nsquared_error = 0.001\nsamples = 7\nvalue = 0.205", fillcolor="#fbede3"] ;
285 -> 321 ;
322 [label="AoA <= -4.0\nsquared_error = 0.0\nsamples = 6\nvalue = 0.189", fillcolor="#fceee5"] ;
321 -> 322 ;
323 [label="AoS <= 9.5\nsquared_error = 0.0\nsamples = 3\nvalue = 0.2", fillcolor="#fbede3"] ;
322 -> 323 ;
324 [label="squared_error = 0.0\nsamples = 1\nvalue = 0.213", fillcolor="#fbece2"] ;
323 -> 324 ;
325 [label="AoA <= -6.5\nsquared_error = 0.0\nsamples = 2\nvalue = 0.196", fillcolor="#fbeee4"] ;
323 -> 325 ;
326 [label="squared_error = 0.0\nsamples = 1\nvalue = 0.192", fillcolor="#fceee4"] ;
325 -> 326 ;
327 [label="squared_error = -0.0\nsamples = 1\nvalue = 0.198", fillcolor="#fbeee4"] ;
325 -> 327 ;
328 [label="AoA <= -1.5\nsquared_error = 0.0\nsamples = 3\nvalue = 0.174", fillcolor="#fcf0e7"] ;
322 -> 328 ;
329 [label="squared_error = 0.0\nsamples = 1\nvalue = 0.159", fillcolor="#fcf1e9"] ;
328 -> 329 ;
330 [label="Altitude <= 6437.0\nsquared_error = 0.0\nsamples = 2\nvalue = 0.182", fillcolor="#fcefe6"] ;
328 -> 330 ;
331 [label="squared_error = 0.0\nsamples = 1\nvalue = 0.186", fillcolor="#fcefe5"] ;
330 -> 331 ;
332 [label="squared_error = 0.0\nsamples = 1\nvalue = 0.178", fillcolor="#fcefe6"] ;
330 -> 332 ;
333 [label="squared_error = -0.0\nsamples = 1\nvalue = 0.262", fillcolor="#fae9dc"] ;
321 -> 333 ;
334 [label="Mach <= 0.15\nsquared_error = 0.1\nsamples = 48\nvalue = 0.545", fillcolor="#f6d3b9"] ;
0 -> 334 [labeldistance=2.5, labelangle=-45, headlabel="False"] ;
335 [label="AoS <= 11.5\nsquared_error = 0.033\nsamples = 6\nvalue = 1.212", fillcolor="#eb9e67"] ;
334 -> 335 ;
336 [label="Altitude <= 4294.0\nsquared_error = 0.0\nsamples = 2\nvalue = 0.946", fillcolor="#efb388"] ;
335 -> 336 ;
337 [label="squared_error = 0.0\nsamples = 1\nvalue = 0.936", fillcolor="#f0b489"] ;
336 -> 337 ;
338 [label="squared_error = 0.0\nsamples = 1\nvalue = 0.967", fillcolor="#efb185"] ;
336 -> 338 ;
339 [label="Altitude <= 7451.5\nsquared_error = 0.012\nsamples = 4\nvalue = 1.301", fillcolor="#ea975c"] ;
335 -> 339 ;
340 [label="AoA <= 12.0\nsquared_error = 0.002\nsamples = 3\nvalue = 1.265", fillcolor="#ea9a61"] ;
339 -> 340 ;
341 [label="AoA <= 4.0\nsquared_error = 0.001\nsamples = 2\nvalue = 1.249", fillcolor="#ea9b63"] ;
340 -> 341 ;
342 [label="squared_error = 0.0\nsamples = 1\nvalue = 1.302", fillcolor="#ea975c"] ;
341 -> 342 ;
343 [label="squared_error = 0.0\nsamples = 1\nvalue = 1.222", fillcolor="#eb9d66"] ;
341 -> 343 ;
344 [label="squared_error = 0.0\nsamples = 1\nvalue = 1.313", fillcolor="#e9965b"] ;
340 -> 344 ;
345 [label="squared_error = -0.0\nsamples = 1\nvalue = 1.587", fillcolor="#e58139"] ;
339 -> 345 ;
346 [label="Mach <= 0.25\nsquared_error = 0.021\nsamples = 42\nvalue = 0.429", fillcolor="#f8dcc7"] ;
334 -> 346 ;
347 [label="AoS <= 12.5\nsquared_error = 0.009\nsamples = 9\nvalue = 0.649", fillcolor="#f4caac"] ;
346 -> 347 ;
348 [label="AoS <= 11.5\nsquared_error = 0.002\nsamples = 5\nvalue = 0.568", fillcolor="#f5d1b6"] ;
347 -> 348 ;
349 [label="AoA <= 1.5\nsquared_error = 0.001\nsamples = 2\nvalue = 0.495", fillcolor="#f7d6bf"] ;
348 -> 349 ;
350 [label="squared_error = 0.0\nsamples = 1\nvalue = 0.468", fillcolor="#f7d9c3"] ;
349 -> 350 ;
351 [label="squared_error = -0.0\nsamples = 1\nvalue = 0.522", fillcolor="#f6d4bc"] ;
349 -> 351 ;
352 [label="AoA <= -11.5\nsquared_error = 0.001\nsamples = 3\nvalue = 0.593", fillcolor="#f5cfb3"] ;
348 -> 352 ;
353 [label="squared_error = 0.0\nsamples = 1\nvalue = 0.65", fillcolor="#f4caac"] ;
352 -> 353 ;
354 [label="AoA <= -1.0\nsquared_error = 0.0\nsamples = 2\nvalue = 0.581", fillcolor="#f5d0b5"] ;
352 -> 354 ;
355 [label="squared_error = 0.0\nsamples = 1\nvalue = 0.58", fillcolor="#f5d0b5"] ;
354 -> 355 ;
356 [label="squared_error = 0.0\nsamples = 1\nvalue = 0.582", fillcolor="#f5d0b5"] ;
354 -> 356 ;
357 [label="AoA <= 10.5\nsquared_error = 0.001\nsamples = 4\nvalue = 0.74", fillcolor="#f3c3a1"] ;
347 -> 357 ;
358 [label="Altitude <= 5247.0\nsquared_error = 0.001\nsamples = 3\nvalue = 0.722", fillcolor="#f3c5a3"] ;
357 -> 358 ;
359 [label="squared_error = 0.0\nsamples = 1\nvalue = 0.673", fillcolor="#f4c8a9"] ;
358 -> 359 ;
360 [label="AoS <= 13.5\nsquared_error = 0.0\nsamples = 2\nvalue = 0.734", fillcolor="#f3c4a2"] ;
358 -> 360 ;
361 [label="squared_error = 0.0\nsamples = 1\nvalue = 0.743", fillcolor="#f3c3a1"] ;
360 -> 361 ;
362 [label="squared_error = -0.0\nsamples = 1\nvalue = 0.731", fillcolor="#f3c4a2"] ;
360 -> 362 ;
363 [label="squared_error = 0.0\nsamples = 1\nvalue = 0.786", fillcolor="#f2c09b"] ;
357 -> 363 ;
364 [label="AoS <= 12.5\nsquared_error = 0.007\nsamples = 33\nvalue = 0.367", fillcolor="#f9e0cf"] ;
346 -> 364 ;
365 [label="Mach <= 0.45\nsquared_error = 0.006\nsamples = 19\nvalue = 0.319", fillcolor="#f9e4d5"] ;
364 -> 365 ;
366 [label="AoA <= 6.5\nsquared_error = 0.003\nsamples = 9\nvalue = 0.377", fillcolor="#f9e0ce"] ;
365 -> 366 ;
367 [label="AoS <= 11.5\nsquared_error = 0.001\nsamples = 7\nvalue = 0.359", fillcolor="#f9e1d0"] ;
366 -> 367 ;
368 [label="Mach <= 0.35\nsquared_error = 0.001\nsamples = 4\nvalue = 0.328", fillcolor="#f9e4d4"] ;
367 -> 368 ;
369 [label="AoA <= 1.5\nsquared_error = 0.0\nsamples = 3\nvalue = 0.34", fillcolor="#f9e3d2"] ;
368 -> 369 ;
370 [label="squared_error = 0.0\nsamples = 1\nvalue = 0.33", fillcolor="#f9e3d3"] ;
369 -> 370 ;
371 [label="AoA <= 3.5\nsquared_error = 0.0\nsamples = 2\nvalue = 0.347", fillcolor="#f9e2d1"] ;
369 -> 371 ;
372 [label="squared_error = 0.0\nsamples = 1\nvalue = 0.342", fillcolor="#f9e2d2"] ;
371 -> 372 ;
373 [label="squared_error = 0.0\nsamples = 1\nvalue = 0.35", fillcolor="#f9e2d1"] ;
371 -> 373 ;
374 [label="squared_error = -0.0\nsamples = 1\nvalue = 0.263", fillcolor="#fae9dc"] ;
368 -> 374 ;
375 [label="Altitude <= 7944.0\nsquared_error = 0.0\nsamples = 3\nvalue = 0.39", fillcolor="#f8dfcc"] ;
367 -> 375 ;
376 [label="AoA <= -6.5\nsquared_error = 0.0\nsamples = 2\nvalue = 0.387", fillcolor="#f8dfcc"] ;
375 -> 376 ;
377 [label="squared_error = 0.0\nsamples = 1\nvalue = 0.378", fillcolor="#f9e0ce"] ;
376 -> 377 ;
378 [label="squared_error = 0.0\nsamples = 1\nvalue = 0.39", fillcolor="#f8dfcc"] ;
376 -> 378 ;
379 [label="squared_error = 0.0\nsamples = 1\nvalue = 0.395", fillcolor="#f8decc"] ;
375 -> 379 ;
380 [label="AoS <= 11.5\nsquared_error = 0.0\nsamples = 2\nvalue = 0.452", fillcolor="#f7dac5"] ;
366 -> 380 ;
381 [label="squared_error = 0.0\nsamples = 1\nvalue = 0.423", fillcolor="#f8dcc8"] ;
380 -> 381 ;
382 [label="squared_error = -0.0\nsamples = 1\nvalue = 0.467", fillcolor="#f7d9c3"] ;
380 -> 382 ;
383 [label="AoA <= 8.5\nsquared_error = 0.002\nsamples = 10\nvalue = 0.252", fillcolor="#fbe9dd"] ;
365 -> 383 ;
384 [label="AoA <= -8.5\nsquared_error = 0.001\nsamples = 9\nvalue = 0.242", fillcolor="#fbeade"] ;
383 -> 384 ;
385 [label="squared_error = 0.0\nsamples = 1\nvalue = 0.282", fillcolor="#fae7d9"] ;
384 -> 385 ;
386 [label="AoA <= 2.5\nsquared_error = 0.001\nsamples = 8\nvalue = 0.234", fillcolor="#fbebdf"] ;
384 -> 386 ;
387 [label="AoA <= -4.5\nsquared_error = 0.0\nsamples = 6\nvalue = 0.222", fillcolor="#fbece1"] ;
386 -> 387 ;
388 [label="Altitude <= 2547.0\nsquared_error = 0.0\nsamples = 2\nvalue = 0.237", fillcolor="#fbebdf"] ;
387 -> 388 ;
389 [label="squared_error = 0.0\nsamples = 1\nvalue = 0.242", fillcolor="#fbeade"] ;
388 -> 389 ;
390 [label="squared_error = 0.0\nsamples = 1\nvalue = 0.232", fillcolor="#fbebe0"] ;
388 -> 390 ;
391 [label="Mach <= 0.55\nsquared_error = 0.0\nsamples = 4\nvalue = 0.217", fillcolor="#fbece1"] ;
387 -> 391 ;
392 [label="Altitude <= 7317.0\nsquared_error = 0.0\nsamples = 2\nvalue = 0.213", fillcolor="#fbece2"] ;
391 -> 392 ;
393 [label="squared_error = 0.0\nsamples = 1\nvalue = 0.215", fillcolor="#fbece2"] ;
392 -> 393 ;
394 [label="squared_error = 0.0\nsamples = 1\nvalue = 0.212", fillcolor="#fbede2"] ;
392 -> 394 ;
395 [label="Altitude <= 4931.0\nsquared_error = 0.0\nsamples = 2\nvalue = 0.222", fillcolor="#fbece1"] ;
391 -> 395 ;
396 [label="squared_error = 0.0\nsamples = 1\nvalue = 0.22", fillcolor="#fbece1"] ;
395 -> 396 ;
397 [label="squared_error = 0.0\nsamples = 1\nvalue = 0.226", fillcolor="#fbebe0"] ;
395 -> 397 ;
398 [label="AoA <= 4.5\nsquared_error = 0.0\nsamples = 2\nvalue = 0.281", fillcolor="#fae7da"] ;
386 -> 398 ;
399 [label="squared_error = 0.0\nsamples = 1\nvalue = 0.276", fillcolor="#fae8da"] ;
398 -> 399 ;
400 [label="squared_error = 0.0\nsamples = 1\nvalue = 0.287", fillcolor="#fae7d9"] ;
398 -> 400 ;
401 [label="squared_error = -0.0\nsamples = 1\nvalue = 0.366", fillcolor="#f9e1cf"] ;
383 -> 401 ;
402 [label="Mach <= 0.35\nsquared_error = 0.004\nsamples = 14\nvalue = 0.42", fillcolor="#f8dcc9"] ;
364 -> 402 ;
403 [label="AoA <= 4.0\nsquared_error = 0.0\nsamples = 2\nvalue = 0.545", fillcolor="#f6d3b9"] ;
402 -> 403 ;
404 [label="squared_error = 0.0\nsamples = 1\nvalue = 0.537", fillcolor="#f6d3ba"] ;
403 -> 404 ;
405 [label="squared_error = 0.0\nsamples = 1\nvalue = 0.552", fillcolor="#f6d2b8"] ;
403 -> 405 ;
406 [label="AoA <= 13.0\nsquared_error = 0.003\nsamples = 12\nvalue = 0.409", fillcolor="#f8ddca"] ;
402 -> 406 ;
407 [label="AoA <= -12.5\nsquared_error = 0.001\nsamples = 11\nvalue = 0.401", fillcolor="#f8decb"] ;
406 -> 407 ;
408 [label="squared_error = 0.0\nsamples = 1\nvalue = 0.48", fillcolor="#f7d8c1"] ;
407 -> 408 ;
409 [label="Altitude <= 12555.0\nsquared_error = 0.001\nsamples = 10\nvalue = 0.397", fillcolor="#f8decb"] ;
407 -> 409 ;
410 [label="Altitude <= 1642.5\nsquared_error = 0.001\nsamples = 9\nvalue = 0.401", fillcolor="#f8decb"] ;
409 -> 410 ;
411 [label="squared_error = 0.0\nsamples = 1\nvalue = 0.357", fillcolor="#f9e1d0"] ;
410 -> 411 ;
412 [label="Altitude <= 10586.0\nsquared_error = 0.0\nsamples = 8\nvalue = 0.405", fillcolor="#f8ddca"] ;
410 -> 412 ;
413 [label="AoA <= 8.5\nsquared_error = 0.0\nsamples = 6\nvalue = 0.411", fillcolor="#f8ddca"] ;
412 -> 413 ;
414 [label="AoA <= -10.5\nsquared_error = 0.0\nsamples = 4\nvalue = 0.406", fillcolor="#f8ddca"] ;
413 -> 414 ;
415 [label="squared_error = 0.0\nsamples = 1\nvalue = 0.426", fillcolor="#f8dcc8"] ;
414 -> 415 ;
416 [label="Altitude <= 5454.0\nsquared_error = 0.0\nsamples = 3\nvalue = 0.402", fillcolor="#f8decb"] ;
414 -> 416 ;
417 [label="squared_error = 0.0\nsamples = 1\nvalue = 0.406", fillcolor="#f8ddca"] ;
416 -> 417 ;
418 [label="AoA <= -1.5\nsquared_error = 0.0\nsamples = 2\nvalue = 0.398", fillcolor="#f8decb"] ;
416 -> 418 ;
419 [label="squared_error = 0.0\nsamples = 1\nvalue = 0.399", fillcolor="#f8decb"] ;
418 -> 419 ;
420 [label="squared_error = 0.0\nsamples = 1\nvalue = 0.395", fillcolor="#f8decc"] ;
418 -> 420 ;
421 [label="AoS <= 13.5\nsquared_error = 0.0\nsamples = 2\nvalue = 0.442", fillcolor="#f7dbc6"] ;
413 -> 421 ;
422 [label="squared_error = 0.0\nsamples = 1\nvalue = 0.438", fillcolor="#f8dbc6"] ;
421 -> 422 ;
423 [label="squared_error = 0.0\nsamples = 1\nvalue = 0.447", fillcolor="#f7dac5"] ;
421 -> 423 ;
424 [label="Mach <= 0.5\nsquared_error = 0.001\nsamples = 2\nvalue = 0.389", fillcolor="#f8dfcc"] ;
412 -> 424 ;
425 [label="squared_error = 0.0\nsamples = 1\nvalue = 0.359", fillcolor="#f9e1d0"] ;
424 -> 425 ;
426 [label="squared_error = 0.0\nsamples = 1\nvalue = 0.408", fillcolor="#f8ddca"] ;
424 -> 426 ;
427 [label="squared_error = 0.0\nsamples = 1\nvalue = 0.326", fillcolor="#f9e4d4"] ;
409 -> 427 ;
428 [label="squared_error = 0.0\nsamples = 1\nvalue = 0.594", fillcolor="#f5cfb3"] ;
406 -> 428 ;
}